digraph Tree {
node [shape=box] ;
0 [label="object <= 0.002\ngini = 0.5\nsamples = 114\nvalue = [58, 56]"] ;
1 [label="confirm <= 0.022\ngini = 0.371\nsamples = 57\nvalue = [43, 14]"] ;
0 -> 1 [labeldistance=2.5, labelangle=45, headlabel="True"] ;
2 [label="incid <= 0.018\ngini = 0.219\nsamples = 48\nvalue = [42, 6]"] ;
1 -> 2 ;
3 [label="balanc <= 0.003\ngini = 0.124\nsamples = 45\nvalue = [42, 3]"] ;
2 -> 3 ;
4 [label="profit <= 0.049\ngini = 0.045\nsamples = 43\nvalue = [42, 1]"] ;
3 -> 4 ;
5 [label="gini = 0.0\nsamples = 42\nvalue = [42, 0]"] ;
4 -> 5 ;
6 [label="gini = 0.0\nsamples = 1\nvalue = [0, 1]"] ;
4 -> 6 ;
7 [label="gini = 0.0\nsamples = 2\nvalue = [0, 2]"] ;
3 -> 7 ;
8 [label="gini = 0.0\nsamples = 3\nvalue = [0, 3]"] ;
2 -> 8 ;
9 [label="card <= 0.033\ngini = 0.198\nsamples = 9\nvalue = [1, 8]"] ;
1 -> 9 ;
10 [label="gini = 0.0\nsamples = 8\nvalue = [0, 8]"] ;
9 -> 10 ;
11 [label="gini = 0.0\nsamples = 1\nvalue = [1, 0]"] ;
9 -> 11 ;
12 [label="internet <= 0.028\ngini = 0.388\nsamples = 57\nvalue = [15, 42]"] ;
0 -> 12 [labeldistance=2.5, labelangle=-45, headlabel="False"] ;
13 [label="group <= 0.017\ngini = 0.291\nsamples = 51\nvalue = [9, 42]"] ;
12 -> 13 ;
14 [label="home <= 0.006\ngini = 0.19\nsamples = 47\nvalue = [5, 42]"] ;
13 -> 14 ;
15 [label="updatingdelet <= 0.005\ngini = 0.089\nsamples = 43\nvalue = [2, 41]"] ;
14 -> 15 ;
16 [label="resist <= 0.011\ngini = 0.046\nsamples = 42\nvalue = [1, 41]"] ;
15 -> 16 ;
17 [label="gini = 0.0\nsamples = 40\nvalue = [0, 40]"] ;
16 -> 17 ;
18 [label="gini = 0.5\nsamples = 2\nvalue = [1, 1]"] ;
16 -> 18 ;
19 [label="gini = 0.0\nsamples = 1\nvalue = [1, 0]"] ;
15 -> 19 ;
20 [label="cr <= 0.01\ngini = 0.375\nsamples = 4\nvalue = [3, 1]"] ;
14 -> 20 ;
21 [label="gini = 0.0\nsamples = 3\nvalue = [3, 0]"] ;
20 -> 21 ;
22 [label="gini = 0.0\nsamples = 1\nvalue = [0, 1]"] ;
20 -> 22 ;
23 [label="gini = 0.0\nsamples = 4\nvalue = [4, 0]"] ;
13 -> 23 ;
24 [label="gini = 0.0\nsamples = 6\nvalue = [6, 0]"] ;
12 -> 24 ;
}